Language model created by QuickLM on Wed Mar  7 06:45:46 EST 2018
Copyright (c) 1996-2010 Carnegie Mellon University and Alexander I. Rudnicky

The model is in standard ARPA format, designed by Doug Paul while he was at MITRE.

The code that was used to produce this language model is available in Open Source.
Please visit http://www.speech.cs.cmu.edu/tools/ for more information

The (fixed) discount mass is 0.5. The backoffs are computed using the ratio method.
This model based on a corpus of 7 sentences and 9 words

\data\
ngram 1=9
ngram 2=14
ngram 3=7

\1-grams:
-0.7782 </s> -0.3010
-0.7782 <s> -0.2218
-1.6232 LIBBI -0.2218
-1.6232 LIBBY -0.2218
-1.6232 LIBI -0.2218
-1.6232 LIBII -0.2218
-1.6232 LIBY -0.2218
-1.6232 LIBYY -0.2218
-1.6232 LIIBI -0.2218

\2-grams:
-1.1461 <s> LIBBI 0.0000
-1.1461 <s> LIBBY 0.0000
-1.1461 <s> LIBI 0.0000
-1.1461 <s> LIBII 0.0000
-1.1461 <s> LIBY 0.0000
-1.1461 <s> LIBYY 0.0000
-1.1461 <s> LIIBI 0.0000
-0.3010 LIBBI </s> -0.3010
-0.3010 LIBBY </s> -0.3010
-0.3010 LIBI </s> -0.3010
-0.3010 LIBII </s> -0.3010
-0.3010 LIBY </s> -0.3010
-0.3010 LIBYY </s> -0.3010
-0.3010 LIIBI </s> -0.3010

\3-grams:
-0.3010 <s> LIBBI </s>
-0.3010 <s> LIBBY </s>
-0.3010 <s> LIBI </s>
-0.3010 <s> LIBII </s>
-0.3010 <s> LIBY </s>
-0.3010 <s> LIBYY </s>
-0.3010 <s> LIIBI </s>

\end\
